%YAML:1.0
---
myHogDector1: !!opencv-object-detector-hog
   winSize: [ 64, 128 ]
   blockSize: [ 16, 16 ]
   blockStride: [ 8, 8 ]
   cellSize: [ 8, 8 ]
   nbins: 9
   derivAperture: 1
   winSigma: 4.
   histogramNormType: 0
   L2HysThreshold: 2.0000000000000001e-01
   gammaCorrection: 1
   nlevels: 64
   signedGradient: 0
   SVMDetector: [ 3.56694907e-02, -2.23688222e-02, -1.63805895e-02,
       2.21380796e-02, 2.25455277e-02, -4.04257923e-02, -2.17344835e-02,
       -2.29164995e-02, 3.11655533e-02, 5.63460402e-02, -3.70729249e-04,
       1.01198857e-04, 1.18825257e-04, 1.04651954e-02, 3.11615635e-02,
       -6.86997361e-03, -2.78938580e-02, 1.15706446e-02, 2.76463777e-02,
       -6.02861226e-04, 1.24014840e-02, 4.82719056e-02, 5.70374215e-03,
       -2.06418410e-02, -1.68211982e-02, -5.33988997e-02, 1.05922334e-02,
       1.93280354e-02, 1.56130362e-02, 1.86523178e-03, 3.31084952e-02,
       -1.60967838e-02, 2.56261583e-02, 6.97438698e-03, -1.49452798e-02,
       5.84647572e-03, 3.64712812e-03, -7.32345367e-03, 8.31560045e-03,
       -1.69256721e-02, 3.20358365e-03, 1.02409441e-02, -1.04611600e-02,
       -1.96369160e-02, -1.70363076e-02, 1.90898497e-02, 9.41989012e-03,
       4.98783477e-02, 3.64850797e-02, 2.62944959e-02, -3.98694305e-03,
       1.17791472e-02, 1.67644974e-02, -1.41126208e-03, 1.56316925e-02,
       9.05847002e-04, 3.72182403e-04, 2.18517110e-02, 6.65194774e-03,
       1.82018727e-02, 1.38265761e-02, 4.47820872e-04, 8.98825563e-03,
       1.87832080e-02, 1.10868423e-03, 5.58861485e-03, 3.20242383e-02,
       1.18489821e-04, 2.08298936e-02, 1.19874999e-02, -3.44857178e-03,
       2.15787645e-02, 1.29167270e-02, -9.20871831e-03, 2.87164468e-02,
       1.05185164e-02, 1.30222151e-02, 3.10787652e-02, 2.05576960e-02,
       3.41462381e-02, -5.40740148e-04, 1.92439370e-02, -9.65503044e-03,
       9.86349024e-03, -3.49880420e-02, 2.64069624e-02, 6.07840419e-02,
       4.18685861e-02, 4.56119217e-02, 2.96374112e-02, -1.46849053e-02,
       3.67808901e-03, -5.69557247e-04, 3.88083211e-03, -1.42998863e-02,
       3.43203172e-02, 6.05949899e-03, 7.50727300e-03, 1.03509007e-02,
       -1.29565056e-02, -6.13599923e-03, -7.68347923e-03,
       -3.89754176e-02, -1.81684997e-02, 2.79432237e-02, -6.47618109e-03,
       4.87090722e-02, -5.94136724e-03, 4.61520907e-03, 2.00027060e-02,
       4.64016292e-03, -1.36680743e-02, -3.99724348e-03, 3.64570431e-02,
       1.13170745e-03, -1.75404921e-03, -6.53840648e-03, -2.56613102e-02,
       -1.66617353e-02, -1.49958208e-02, -2.89183520e-02,
       -1.78332273e-02, 5.83176548e-03, -3.84401232e-02, -4.26037200e-02,
       -1.75665990e-02, -1.30310431e-02, 5.16206771e-03, 2.29889397e-02,
       7.22998870e-04, -3.58014517e-02, 2.29093861e-02, 2.57220715e-02,
       4.71200310e-02, -2.42862124e-02, -4.51277718e-02, -3.51299569e-02,
       -2.44017616e-02, -8.15069396e-03, -4.74538952e-02, 1.46482280e-02,
       1.37332361e-02, -6.97112316e-03, -5.46009503e-02, -5.31676691e-03,
       2.62934398e-02, -9.77570284e-03, -4.94898995e-03, 2.44559608e-02,
       4.80035925e-03, 1.38001628e-02, 1.77351423e-02, 4.67545167e-03,
       -3.04904040e-02, -3.16952206e-02, -6.55162781e-02,
       -8.46861303e-03, 1.67675447e-02, 1.43343285e-02, -1.22428583e-02,
       3.50858318e-03, -1.94834732e-02, -9.42418166e-03, 7.85879605e-03,
       -1.66917816e-02, -3.92132532e-03, -3.23691085e-04, 9.55257658e-03,
       4.22553867e-02, 3.65056135e-02, -7.89039675e-03, -4.43836413e-02,
       -4.41079997e-02, -4.62672599e-02, -8.69123731e-03, 2.61931168e-03,
       -8.61533545e-03, 2.07669083e-02, -1.17560092e-03, -1.31291356e-02,
       -4.34772111e-02, -2.70756222e-02, -4.80082668e-02, 2.02338006e-02,
       3.55400071e-02, 2.56006718e-02, 4.45908541e-03, 1.57400798e-02,
       6.95876265e-03, -2.79717166e-02, -2.24325750e-02, -1.46525558e-02,
       2.65597031e-02, -6.47978764e-03, -7.49348989e-03, -9.75238532e-03,
       9.99195781e-03, 8.51092953e-03, -3.35015468e-02, -1.82609092e-02,
       -3.18136401e-02, 3.26729603e-02, 4.81808446e-02, 1.91792753e-02,
       5.03157591e-03, 1.90033708e-02, -1.29552465e-02, -2.56784800e-02,
       1.40075628e-02, 1.44071516e-03, 2.80229189e-02, 2.77625527e-02,
       1.26269506e-03, 6.00407552e-03, 2.05587503e-02, -1.69953667e-02,
       1.43667432e-02, 1.73275359e-02, -8.65003187e-03, 2.63827555e-02,
       3.31140310e-02, -6.05203910e-03, -3.45612946e-03, 3.37294117e-02,
       2.10111029e-02, 5.79364365e-03, 2.44716648e-03, -6.31305054e-02,
       -6.22618431e-03, 9.24450904e-03, -6.82109967e-03, -4.15762365e-02,
       3.31818648e-02, -4.25940566e-03, -9.00175795e-03, 1.50893684e-02,
       -3.44455038e-04, 3.74052450e-02, 3.96415070e-02, -4.54419479e-03,
       2.68200226e-03, 3.48345935e-02, -2.71284841e-02, -1.27224056e-02,
       7.56956218e-03, -4.16413769e-02, -6.64704898e-03, -2.81867944e-03,
       -1.15788891e-03, -4.15937006e-02, 3.07638897e-03, -4.23483998e-02,
       2.73216534e-02, 4.96953959e-03, -3.08233164e-02, -4.89975000e-03,
       2.11638398e-02, 2.15789750e-02, -1.97515283e-02, 2.59916950e-02,
       2.37486847e-02, -2.59237606e-02, -4.12087850e-02, -6.14510067e-02,
       -8.68879445e-03, 1.56106800e-02, 7.68749800e-04, -2.37811524e-02,
       1.17126852e-02, -8.27425439e-03, 2.92457268e-02, 1.60381552e-02,
       1.71557860e-03, 3.61197926e-02, -2.79368879e-03, 3.58390808e-02,
       1.29924836e-02, 3.58835235e-02, -2.69662094e-04, 9.87545401e-03,
       3.73778725e-03, -4.04714840e-03, 1.65933147e-02, -1.43544516e-02,
       -7.76314223e-03, 3.45001183e-02, 1.89674012e-02, -1.13733690e-02,
       -3.29347849e-02, -3.84020247e-02, -2.35860366e-02, 2.49488335e-02,
       -1.39528578e-02, 6.35195011e-03, -1.32665494e-02, 1.10491784e-02,
       -5.94753167e-03, -5.40705351e-03, -3.94496210e-02,
       -1.76957473e-02, 1.34437745e-02, -1.12236859e-02, -6.68788841e-03,
       -1.81568842e-02, -8.43088422e-03, -6.21738072e-05, 6.44133054e-03,
       -7.06524169e-03, 1.57474708e-02, 1.26000801e-02, -4.19364609e-02,
       1.35262460e-02, 3.44506353e-02, 3.37773040e-02, 2.13973150e-02,
       -1.96825359e-02, -2.90218573e-02, -2.27836221e-02,
       -1.11587541e-02, -1.26019930e-02, 4.95398603e-03, -8.85771308e-03,
       -8.20728950e-03, 1.20164929e-02, -2.02597603e-02, -3.40615436e-02,
       -2.25246530e-02, 1.51153440e-02, -2.41335463e-02, 9.38374829e-03,
       -4.04724479e-03, 9.61435866e-03, 2.33170055e-02, -6.90023554e-03,
       -1.07967725e-03, -4.07376140e-02, -2.83760820e-02,
       -4.27517742e-02, -7.42905214e-03, -9.82021447e-03, 4.38666530e-03,
       3.28207179e-03, -1.12109194e-02, 1.45159326e-02, 7.30279554e-03,
       2.68625896e-02, -5.86165721e-03, 2.57833563e-02, 9.14236344e-03,
       8.19499884e-03, -3.86959617e-03, -3.20369797e-03, 1.99387260e-02,
       -1.08396942e-02, 6.58094976e-03, -3.10247224e-02, 1.46464696e-02,
       -7.21967081e-03, -4.82971873e-03, -1.06160594e-02,
       -4.96179424e-03, -8.73783790e-03, -1.29826963e-02, 6.35812664e-03,
       1.82472612e-03, 6.59760553e-04, -1.87111031e-02, 1.48068916e-03,
       -1.29260505e-02, -7.84387626e-03, -3.38907614e-02, 8.98730848e-03,
       7.68164173e-03, -2.27641650e-02, 1.90403173e-03, -1.02837812e-02,
       -8.00201297e-03, -8.96831788e-03, -6.45061256e-03, 2.58893371e-02,
       1.24901123e-02, 2.71792691e-02, 2.13385057e-02, 3.53169963e-02,
       -2.68192310e-02, 1.92867368e-02, -1.62787288e-02, 4.68581915e-03,
       1.48013523e-02, 2.32161395e-02, 5.13031557e-02, -5.87307848e-03,
       1.51304165e-02, -3.62482406e-02, 4.38146759e-03, -7.14832684e-03,
       -2.75505632e-02, -2.39617825e-02, -9.41972248e-03, 1.35165481e-02,
       -9.02106799e-03, -9.00620781e-03, -1.96791850e-02, 2.46546548e-02,
       1.09566003e-02, -3.12066246e-02, -3.28940041e-02, -2.75768917e-02,
       -2.45514531e-02, -2.31549628e-02, -1.56776160e-02,
       -4.66437526e-02, 2.22446732e-02, 8.27032607e-03, -1.15640694e-02,
       -4.17305564e-04, 6.11335598e-03, 2.20555160e-02, 6.10795245e-03,
       2.84357313e-02, -6.64877659e-03, 3.05349920e-02, -1.75608776e-03,
       -3.77711654e-02, -3.17054801e-02, -1.56964688e-03,
       -1.34409626e-03, -1.04183014e-02, 4.29261615e-03, -2.79070735e-02,
       -1.71813765e-04, -7.51369260e-03, -1.80165153e-02,
       -8.71064607e-03, 2.37377957e-02, 1.12149920e-02, -8.57172348e-03,
       5.70877269e-03, -2.34152805e-02, 1.69609603e-03, 1.10598514e-03,
       -3.27366516e-02, -2.42398065e-02, 2.24541896e-03, -5.19416556e-02,
       8.39728955e-03, -1.96130387e-02, -1.79961082e-02, -9.86111537e-03,
       -4.83814161e-03, 1.26215662e-06, 5.82114188e-03, 2.22143754e-02,
       3.11790686e-02, 1.60256904e-02, 3.32788676e-02, 8.89891572e-03,
       9.49385576e-03, 1.11032045e-02, -6.60398835e-03, 1.73341837e-02,
       3.50678228e-02, 6.78186445e-03, 1.50435101e-02, -6.65135682e-03,
       7.54918158e-03, -4.29404248e-03, -2.40730904e-02, -1.75658651e-02,
       -1.80361643e-02, 2.98381294e-03, -3.86612751e-02, 3.91547196e-02,
       -1.48721291e-02, -5.48608713e-02, 1.10985723e-03, 8.89540557e-03,
       4.25465079e-03, -1.60752404e-02, 1.25095760e-02, -1.17433676e-03,
       3.75869647e-02, 2.40516709e-03, -4.10573743e-02, -1.19074732e-02,
       6.23046653e-03, -2.01497246e-02, 3.83759453e-03, 2.78188083e-02,
       -1.75307505e-02, 6.57244818e-04, -1.26615344e-02, -3.78140099e-02,
       -2.97084283e-02, -5.59415296e-03, -3.39401443e-03,
       -2.23246426e-03, 2.53593940e-02, -4.35581710e-03, 1.07759191e-02,
       -1.98336020e-02, -5.38759753e-02, -5.20075578e-03, 2.39207614e-02,
       3.12721804e-02, 3.71899130e-03, 9.98249650e-03, 1.12919100e-02,
       -2.36988049e-02, 2.53322106e-02, -3.14293094e-02, -3.39538418e-02,
       2.31218264e-02, 2.45334767e-02, -2.94933859e-02, -1.72824599e-04,
       1.71847269e-02, -7.14574084e-02, -8.28195922e-03, -2.45196726e-02,
       -3.49264890e-02, 2.91401912e-02, 1.98185109e-02, -3.47680822e-02,
       1.39991706e-03, 1.65797602e-02, -2.15357654e-02, 2.24066284e-02,
       -2.66144108e-02, -2.60270853e-02, 1.19485902e-02, 8.57075211e-03,
       -4.32560667e-02, -3.78974900e-02, 1.74862146e-02, -5.10410890e-02,
       4.69457321e-02, -1.09043892e-03, -2.11219061e-02, 2.52665933e-02,
       2.97508594e-02, -1.85246691e-02, -1.12443874e-02, 1.13031128e-02,
       1.72573384e-02, 1.66613907e-02, -1.67439673e-02, -5.70462011e-02,
       5.25276922e-03, 3.62222418e-02, -6.92372303e-03, 9.38448706e-04,
       3.47096249e-02, -3.55888740e-03, 2.27007698e-02, 2.42376793e-02,
       -1.17764855e-02, 7.20032817e-03, 6.17826916e-03, -6.64749220e-02,
       -2.69032326e-02, 6.73898542e-03, -2.57738829e-02, 7.21775368e-03,
       -7.35190837e-03, -2.89429389e-02, 1.64166857e-02, 6.07847702e-03,
       -2.19587684e-02, 1.26304179e-02, -1.91491600e-02, -4.44757342e-02,
       1.96922459e-02, 1.64684895e-02, -4.05336823e-03, -1.91787956e-03,
       4.08926718e-02, -2.26700734e-02, -1.61536578e-02, -2.39491016e-02,
       1.81487424e-03, 1.41455643e-02, -1.59010962e-02, -2.02487819e-02,
       1.61696076e-02, 2.10790988e-02, -3.64255048e-02, -5.25167882e-02,
       -2.15087179e-02, 1.10507682e-02, 6.86107483e-03, 2.82077701e-04,
       -6.60130056e-03, 3.09485365e-02, -3.40749713e-04, -1.00875553e-02,
       2.41224375e-02, -3.21812369e-02, 1.61851185e-05, 1.72253456e-02,
       -2.06356198e-02, -4.65700589e-02, -2.79895905e-02, 1.96658913e-02,
       -3.94156091e-02, -2.25864910e-02, -1.15567315e-02,
       -3.92439915e-03, -6.57701818e-03, -3.62001061e-02,
       -3.55494916e-02, 7.72487000e-03, -1.40503775e-02, -1.63814519e-02,
       -2.77825110e-02, -5.43294102e-03, 2.84143556e-02, 1.88992843e-02,
       1.32705821e-02, 5.42975310e-03, 2.72941752e-03, -5.35265636e-03,
       -1.41913281e-03, -9.27841850e-03, -2.46891323e-02, 3.02641951e-02,
       6.53361948e-03, -6.18493278e-03, 2.31323633e-02, 1.60872117e-02,
       1.89720877e-02, -3.16946730e-02, -1.51154548e-02, 2.77608894e-02,
       3.67027186e-02, 2.20499877e-02, -9.60681820e-04, 3.05946469e-02,
       2.86076069e-02, -3.10499351e-02, -1.86040942e-02, 4.76652896e-03,
       1.13890423e-02, 2.60088127e-02, -1.17680272e-02, 5.87454485e-03,
       4.40263636e-02, 1.61029473e-02, 8.58876668e-03, 1.06491642e-02,
       1.36770559e-02, -2.28050929e-02, -1.23096565e-02, -1.47238560e-02,
       -6.53997203e-03, 1.34176598e-03, 4.69648279e-03, 4.31485288e-03,
       1.37544814e-02, -4.28059837e-03, -2.06758901e-02, -1.32152233e-02,
       -6.66521897e-04, -1.84415504e-02, -3.78573239e-02,
       -2.55931634e-02, 4.02283762e-03, 2.29809154e-02, 5.83557263e-02,
       2.08552275e-02, -4.15572315e-04, -1.54043771e-02, 6.44420041e-04,
       2.53748894e-02, 2.13723555e-02, -1.60741918e-02, 4.73556519e-02,
       2.17359047e-02, -2.78285053e-02, -1.58872772e-02, 6.40240824e-03,
       -2.12513432e-02, -4.39043529e-02, -3.44978794e-02, 4.83447984e-02,
       4.03611735e-02, 7.86998495e-03, -1.03780180e-02, -1.96483452e-02,
       -3.17996205e-03, 5.07332198e-03, -1.44606717e-02, -8.48683529e-03,
       1.69342980e-02, 4.58129123e-03, -1.66120827e-02, -3.38011831e-02,
       1.54310223e-02, -2.49780510e-02, -3.34242731e-02, -8.30435008e-03,
       1.35737127e-02, 4.16079722e-02, 8.79948437e-02, 1.88715979e-02,
       7.63271889e-03, -9.99936182e-03, 7.49103772e-03, 3.94235551e-03,
       -2.60491599e-03, -9.10204183e-03, 2.62779109e-02, 5.52645093e-03,
       -1.14031816e-02, 1.99595955e-03, 4.87450063e-02, -2.27127336e-02,
       2.78379954e-03, -5.02698310e-03, -1.33083258e-02, 1.67853571e-02,
       3.51519957e-02, 1.56051833e-02, -4.67101159e-03, 4.12204936e-02,
       4.85351216e-03, -1.02494443e-02, 2.56380439e-02, 3.33316550e-02,
       6.04978809e-03, 9.69312806e-03, -2.34498773e-02, 3.79670016e-03,
       2.08828095e-02, -1.31094148e-02, -6.21434674e-03, 2.38460973e-02,
       1.69840094e-03, 2.17609275e-02, 3.09862476e-02, 1.46666085e-02,
       -1.55938379e-02, 3.20355669e-02, 5.70421759e-03, 8.99871625e-03,
       3.61182317e-02, -8.94094631e-03, 2.17330083e-03, 2.06042863e-02,
       -1.08550312e-02, -4.65897284e-03, 1.56071074e-02, -1.79791320e-02,
       2.08567344e-02, 7.92609621e-03, -3.38742062e-02, -6.49920944e-03,
       2.67505157e-03, -1.36923129e-02, 1.80726554e-02, 3.38276960e-02,
       -1.96634769e-03, -6.07400248e-03, 3.26186530e-02, 7.23753776e-03,
       -5.20730577e-03, -8.60430952e-03, 5.29477093e-03, -6.88737957e-04,
       7.28782965e-03, -2.98447870e-02, -2.59437338e-02, 1.45978471e-02,
       -1.30528770e-02, 5.15715480e-02, 6.23555817e-02, 9.21045803e-03,
       1.70152392e-02, 2.74089780e-02, 4.43453854e-03, 1.79960839e-02,
       1.81758478e-02, -5.52394008e-03, 9.03395191e-03, 3.41707654e-02,
       -6.61521405e-03, -2.00582948e-02, 1.40905222e-02, 2.84702145e-03,
       3.68173160e-02, 4.00176719e-02, -4.64068819e-03, 1.15139354e-02,
       5.11490274e-03, 2.62930361e-03, 1.38771990e-02, -3.56794558e-02,
       -2.52232701e-02, -9.43454634e-03, 1.01450672e-02, -6.14409475e-03,
       1.86178125e-02, 3.55240479e-02, 2.04779697e-03, 3.23798545e-02,
       -3.24480329e-03, -2.03574039e-02, 2.87922248e-02, 2.10621543e-02,
       5.01917151e-04, 1.08097754e-02, 2.66583897e-02, -9.24683409e-04,
       -1.53835705e-02, -9.16283403e-04, 2.59569809e-02, 1.54500920e-02,
       2.76277177e-02, -1.56728942e-02, 2.64543816e-02, 3.31982039e-02,
       -6.40705694e-03, 1.30318524e-02, 5.03856428e-02, 3.91425788e-02,
       1.49117103e-02, 8.04583263e-03, 2.47083288e-02, 1.30076259e-02,
       9.85050015e-03, 4.32985689e-05, 8.40599276e-03, -2.06160564e-02,
       2.22674990e-03, -1.22324023e-02, -2.81099486e-03, 3.67235462e-03,
       1.54499616e-03, -5.64590050e-03, -3.40059362e-02, -1.38518699e-02,
       2.48126201e-02, -1.38775585e-02, -3.22051235e-02, -3.66536379e-02,
       -8.38825293e-03, -4.58981562e-03, 3.09077855e-02, 1.36428205e-02,
       5.34269400e-02, 2.57496536e-02, 5.21968789e-02, 1.91343389e-02,
       4.37739957e-03, 2.02052481e-02, 1.57206506e-02, 1.24072386e-02,
       -1.53140705e-02, 9.74279363e-03, 3.93362939e-02, 2.19906494e-02,
       1.88918237e-03, -1.09738708e-02, -3.08376213e-04, -3.30495241e-04,
       1.12134893e-03, -3.37743424e-02, -7.80953513e-03, -9.50740650e-03,
       -2.61431932e-03, -2.25303918e-02, -2.66711954e-02,
       -2.21488681e-02, 2.33230603e-04, 9.76005290e-03, -1.09243710e-02,
       -3.67208384e-02, -3.72212753e-02, -5.99990645e-03,
       -4.16053459e-02, -3.96722555e-02, -4.34587263e-02, 3.49224433e-02,
       3.61545794e-02, -3.27641219e-02, 2.13628411e-02, 1.55034252e-02,
       5.25112413e-02, 3.03920880e-02, -3.34426132e-03, -7.41683692e-03,
       1.65665038e-02, 1.90001279e-02, -3.68997529e-02, -1.43500725e-02,
       7.08778435e-03, 1.99938845e-02, -4.22720425e-03, -2.31326204e-02,
       4.64725681e-03, -1.80022288e-02, 2.64486838e-02, -1.60329565e-02,
       -4.31280173e-02, 9.61790048e-03, 1.47147952e-02, -3.81582081e-02,
       -1.00672375e-02, -4.75084893e-02, -4.20686826e-02,
       -1.58248022e-02, -4.11632247e-02, 4.89057554e-03, 1.48141553e-04,
       2.78961323e-02, -4.32772674e-02, -3.72242667e-02, -4.52923216e-02,
       1.56502926e-03, 1.01315575e-02, 1.03273690e-02, -1.11126490e-02,
       4.54268567e-02, 2.24490128e-02, -1.88742601e-03, 3.62117519e-03,
       -1.92808069e-03, 8.97078589e-03, 7.92582287e-04, -7.31809298e-03,
       1.85361598e-02, 5.34270480e-02, 3.29890065e-02, -1.36586009e-02,
       -3.27652022e-02, -3.93196568e-03, -1.70732886e-02, 3.38395126e-03,
       -7.62336189e-03, 4.96378960e-03, -8.43135815e-04, 1.64830070e-02,
       -3.21405008e-02, -2.66338624e-02, -2.46624760e-02,
       -3.10968459e-02, -6.94682030e-03, 1.46289468e-02, -1.49623808e-02,
       -4.22681458e-02, -2.55230926e-02, -2.99169701e-02,
       -2.15116907e-02, -3.03919129e-02, 3.05837020e-02, 2.18623932e-02,
       -9.15813912e-03, 4.74431878e-03, 6.36725277e-02, 3.45656574e-02,
       -1.48026180e-02, -3.09910011e-02, -3.10466923e-02, 3.47977430e-02,
       2.92065348e-02, 3.39484736e-02, -1.25230402e-02, 2.68045906e-02,
       1.30612124e-03, -2.04451457e-02, 3.87700205e-03, -8.65260698e-03,
       -2.31343741e-03, -6.65497174e-03, 1.20395347e-02, 6.45530084e-03,
       -3.15416045e-02, -1.63272824e-02, 3.70364683e-03, -6.19538222e-03,
       -1.55460536e-02, -1.59357730e-02, -2.25966424e-02,
       -1.01136919e-02, -1.70513932e-02, -3.82350199e-02,
       -3.95120382e-02, -8.77424434e-04, -1.42929759e-02,
       -3.50405276e-02, 6.43896684e-03, 3.19477879e-02, 5.56408279e-02,
       3.85218300e-02, 4.90342900e-02, 4.20311205e-02, 2.62511130e-02,
       3.25677097e-02, 4.17633448e-04, -9.93414503e-03, -7.26034632e-04,
       2.50743534e-02, -6.78507518e-03, 3.10318545e-03, 2.59102080e-02,
       4.60887030e-02, 4.26252894e-02, -2.29153223e-02, -1.04583977e-02,
       -1.32381497e-02, 8.39197915e-03, -3.23437676e-02, -2.54005417e-02,
       -6.96954201e-04, -2.91328691e-03, -2.45590881e-03, 1.82563905e-02,
       1.64223672e-03, -1.68475788e-02, 4.52073524e-03, -2.44886708e-02,
       -1.01665761e-02, -2.82660555e-02, -2.51810197e-02, 9.56673454e-03,
       5.10660335e-02, 3.96249862e-03, -2.40174634e-03, -1.96124587e-04,
       -4.27458575e-03, 4.26523164e-02, 3.26961875e-02, 2.52343398e-02,
       1.66384671e-02, 9.20160394e-03, -5.34624532e-02, -4.89624925e-02,
       -2.09994465e-02, -9.53007955e-03, 2.48422939e-02, 2.50172354e-02,
       -2.99539324e-03, -1.34261828e-02, 3.64611391e-03, -1.18299283e-03,
       -3.39975059e-02, 1.74777098e-02, 2.00801939e-02, -1.26430253e-03,
       -7.71886844e-04, -2.75892969e-02, -1.62560549e-02, 3.10360175e-02,
       4.16780123e-03, -3.29449214e-02, -1.94880273e-02, 4.35422510e-02,
       -1.98526587e-02, -4.37326776e-03, -2.91729588e-02,
       -3.85317914e-02, 3.53516862e-02, -6.63205609e-03, -3.27090137e-02,
       2.35290281e-05, 1.73825142e-03, 5.66288037e-03, 1.75757073e-02,
       1.87910739e-02, -7.50506157e-03, 2.60300711e-02, -1.02453334e-02,
       -4.74256910e-02, -1.70179121e-02, 5.24985790e-02, 7.87710864e-03,
       -1.24939624e-03, -1.22877965e-02, -3.67091224e-02,
       -2.93618515e-02, 2.39507854e-03, -3.39927189e-02, -1.65963415e-02,
       1.46220513e-02, -7.25029549e-03, -1.44595597e-02, -9.22490843e-03,
       -3.32571454e-02, -9.81091522e-03, 2.84183286e-02, -2.24488578e-03,
       2.56917309e-02, -4.17988934e-03, -1.17454799e-02, -1.40334293e-02,
       -3.95376459e-02, -1.79608800e-02, 2.23127604e-02, 1.14037115e-02,
       -1.87944453e-02, 9.01982188e-03, 1.34410262e-02, 1.57654826e-02,
       2.48918892e-03, 2.08588038e-03, -1.03857350e-02, 1.90661829e-02,
       1.23609658e-02, -2.11022329e-02, -1.57718062e-02, 1.96956098e-02,
       1.50366230e-02, 3.77127826e-02, -2.58927643e-02, -2.58429181e-02,
       3.07414383e-02, -1.78387463e-02, -4.77061607e-03, 3.30086797e-02,
       -2.03303900e-02, -2.94439755e-02, -3.31419557e-02,
       -5.63515015e-02, -7.00040981e-02, -3.23248878e-02, 3.85686196e-02,
       4.74222898e-02, 5.98298907e-02, 1.73588209e-02, 1.78874106e-04,
       -8.38787202e-03, -1.83050130e-02, -1.69886649e-02, 1.36904186e-02,
       -2.46641934e-02, 4.79864748e-03, 5.79941086e-02, 6.19806536e-02,
       4.00874317e-02, -4.80088964e-03, -3.29383388e-02, -7.03490227e-02,
       -3.16690132e-02, 3.98128144e-02, 8.56850296e-02, 1.12498283e-01,
       8.62542465e-02, 9.75697301e-03, -3.38101108e-03, 8.17637518e-03,
       1.74325407e-02, 1.21909901e-02, 4.47684452e-02, -9.16768704e-03,
       -1.32933324e-02, -2.12475155e-02, -2.23510079e-02,
       -1.72871239e-02, -3.35627832e-02, 3.80122066e-02, 5.70338406e-02,
       -3.58638056e-02, -3.03305052e-02, 1.01769837e-02, -1.34984041e-02,
       6.59565721e-03, -6.25730380e-02, -1.38235809e-02, 5.96076176e-02,
       2.47954689e-02, 7.70189539e-02, 4.53732833e-02, 3.87453102e-02,
       1.69815104e-02, 1.19366718e-03, -3.82352285e-02, 2.09878776e-02,
       8.79027545e-02, 1.01007484e-01, -1.60831283e-03, 8.00814480e-03,
       8.08421243e-03, 2.32973159e-03, 3.01748309e-02, -5.48599772e-02,
       6.45390749e-02, 9.36630294e-02, 6.71040937e-02, -3.60691324e-02,
       8.93348977e-02, 1.45537138e-01, 6.19371869e-02, 3.17419991e-02,
       -3.91321927e-02, -1.11642610e-02, 9.89293959e-03, -2.56841164e-02,
       -1.22743892e-02, 9.72780958e-02, 5.73361441e-02, -2.94550024e-02,
       -2.08191648e-02, -3.42297144e-02, -4.51195873e-02,
       -3.85837778e-02, -6.75488487e-02, -4.64023799e-02, 8.45897496e-02,
       1.34239063e-01, 8.26605335e-02, 2.70509981e-02, 1.41865313e-02,
       5.67836389e-02, 4.67943288e-02, 7.81611819e-03, -6.20391592e-02,
       1.01195928e-02, 4.41536047e-02, -1.93182882e-02, -1.40641984e-02,
       -3.47285382e-02, -5.43786623e-02, -6.97091669e-02,
       -9.28367600e-02, 4.03817222e-02, 1.13538414e-01, 2.87951175e-02,
       1.69834157e-03, -2.78037637e-02, 8.15084856e-03, 2.27345061e-02,
       2.06133667e-02, -2.77732015e-02, 1.02838110e-02, 2.64025517e-02,
       -2.57293154e-02, -9.95538291e-03, 1.74925458e-02, 5.94238611e-03,
       3.49394903e-02, 1.18465191e-02, -6.72266632e-03, 8.27027659e-04,
       2.05548983e-02, -5.57751209e-03, -3.99553217e-02, -5.56932986e-02,
       -2.62552348e-04, -9.64345504e-03, 4.68370365e-03, -3.54469605e-02,
       -1.98938474e-02, -1.43999057e-02, -3.70089598e-02,
       -6.38319179e-02, -3.28886919e-02, -3.98932435e-02,
       -3.52480449e-02, -3.25828418e-02, -1.21886721e-02, 3.88292894e-02,
       3.56372260e-02, -1.88493226e-02, -2.10614987e-02, 5.83849847e-03,
       1.40225803e-02, 1.05498387e-02, 4.60823327e-02, 2.97049899e-02,
       4.10712175e-02, 4.89095040e-02, -9.50335991e-03, -2.20284797e-02,
       6.90706307e-03, -1.23358155e-02, -4.03524638e-04, 4.21694033e-02,
       -8.00898578e-03, -3.49299773e-03, 1.84638500e-02, -1.31959943e-02,
       -2.40148534e-03, -4.75298874e-02, -2.17091609e-02,
       -3.28135043e-02, -3.62369721e-03, 1.49553064e-02, 3.46015729e-02,
       -1.37878675e-02, -1.74604543e-02, -3.96752432e-02,
       -1.35634905e-02, -3.19261402e-02, -2.03970782e-02, 9.04533546e-03,
       2.18744599e-03, 5.96552268e-02, 1.00134023e-01, 7.62772420e-03,
       4.43408918e-03, -1.70420751e-03, 2.67992192e-03, 4.33905283e-03,
       4.25337888e-02, 1.34730497e-02, 3.06955297e-02, 6.77785873e-02,
       -3.67556512e-02, -4.89361212e-02, -1.14821661e-02, 9.11026727e-03,
       3.20518240e-02, 3.53947692e-02, -1.76732894e-03, 3.01131885e-02,
       4.28596186e-03, -1.92248877e-02, -3.43561172e-02, -9.90296341e-03,
       2.38607544e-02, 1.19647579e-02, 2.47143861e-02, -1.71570182e-02,
       1.18038123e-02, -6.51050359e-03, -3.56068686e-02, -6.44744411e-02,
       4.26753163e-02, 4.41124067e-02, -8.33217613e-03, -1.18899788e-03,
       1.11136911e-02, 5.36952317e-02, 5.70108220e-02, 1.82123408e-02,
       -2.80858092e-02, -8.83310917e-04, 4.16610949e-02, 9.18944459e-03,
       4.28333469e-02, 5.07600196e-02, 6.49691671e-02, 4.40662503e-02,
       -1.19121536e-03, -6.47972059e-03, 9.44535434e-03, 1.65266339e-02,
       2.29989626e-02, 5.95837720e-02, 5.32991216e-02, 1.91898402e-02,
       1.66584346e-02, -2.15641726e-02, -1.11095347e-02, 3.69670689e-02,
       5.20811006e-02, 1.22447009e-03, -1.05376402e-02, -9.24875028e-03,
       -2.98397336e-02, -1.90182459e-02, -5.57109751e-02,
       -3.61004956e-02, 3.03449156e-03, -2.98018977e-02, -5.71464421e-03,
       1.54897748e-02, -1.05430866e-02, 4.09808457e-02, 5.30242510e-02,
       -6.20414456e-03, -7.02654058e-03, 1.70413069e-02, 3.42491940e-02,
       2.88771484e-02, 7.20833763e-02, 7.81539306e-02, 3.20411138e-02,
       6.62279651e-02, -1.81056280e-02, -1.72364209e-02, 3.45864519e-02,
       3.68415006e-03, 6.60215877e-03, 2.19938438e-02, 2.11897846e-02,
       -1.65806487e-02, 2.58375937e-03, -6.06867559e-02, -3.79393399e-02,
       -7.40534067e-03, 7.05093378e-03, 4.83962195e-03, 4.54063676e-02,
       3.13730258e-03, 2.81642079e-02, 1.47647997e-02, -4.15581688e-02,
       -2.27249023e-02, 2.21836921e-02, -5.19686844e-03, -4.22385596e-02,
       -1.05806971e-02, 2.28137919e-03, 3.55258621e-02, 5.52049652e-02,
       -2.83794701e-02, -1.16724120e-02, -7.93116167e-03,
       -8.95310659e-03, -1.73791219e-02, -2.23240419e-03, 9.78775229e-03,
       2.91721541e-02, 3.81108485e-02, -2.51122694e-02, -3.66888680e-02,
       -2.67595146e-02, -1.46829206e-02, -2.83359624e-02, 1.80139221e-04,
       2.89737936e-02, 3.11129335e-02, 2.58080661e-02, -2.90776845e-02,
       -1.73649043e-02, -3.73600982e-02, -4.47553694e-02,
       -6.02421947e-02, -7.84550793e-03, -1.58311613e-02, 2.79305931e-02,
       2.50507239e-02, 9.60421003e-03, -5.01470864e-02, -3.20761502e-02,
       -2.02003457e-02, -2.51650866e-02, 7.34052109e-03, 1.70781687e-02,
       2.62185611e-04, 1.31652541e-02, -1.87304690e-02, -4.50221114e-02,
       -6.66381558e-03, 1.21848760e-04, -1.84674449e-02, 2.08871700e-02,
       -3.20063811e-03, 1.12350797e-02, 2.83724293e-02, -1.66334230e-02,
       -1.42954299e-02, -2.32143328e-02, -1.79724470e-02,
       -1.24658877e-02, 7.54735246e-03, -3.60668264e-03, 6.49218960e-03,
       5.54823354e-02, 3.42173362e-03, -5.52037880e-02, -6.33023400e-03,
       -2.68940553e-02, -1.16130039e-02, 2.20621750e-02, -1.48811855e-03,
       2.82428302e-02, 1.68667808e-02, -3.53613123e-02, -3.13596688e-02,
       -3.63764465e-02, -3.24678086e-02, -3.53863388e-02,
       -3.83369555e-03, 6.36573881e-03, -6.26495574e-03, 1.48476865e-02,
       -1.10798180e-02, -1.01203900e-02, -1.83462165e-02,
       -1.73359644e-02, -5.02907000e-02, -1.40846707e-02,
       -2.01621633e-02, -7.06687011e-03, -1.05082784e-02,
       -1.34492517e-02, -2.66815461e-02, -2.44084001e-02,
       -4.11625691e-02, -5.94350845e-02, -2.79769604e-03, 1.58273503e-02,
       6.00216091e-02, 1.63349286e-02, -4.17562239e-02, -4.07184288e-02,
       -4.47162576e-02, -3.45979668e-02, -5.62435463e-02, 1.67919714e-02,
       1.92287602e-02, 5.42895906e-02, 1.18304547e-02, -8.43654014e-03,
       -3.80989164e-02, -7.87093397e-03, -3.20815630e-02,
       -2.68138573e-02, 3.33563164e-02, 5.38224354e-02, -2.43332367e-02,
       1.20103806e-02, 3.23315244e-03, -1.96792316e-02, -1.22884857e-02,
       -8.25468078e-03, -1.74929369e-02, 1.41797895e-02, 2.83458550e-03,
       -2.52520330e-02, -2.70632431e-02, -1.66178157e-03,
       -2.83321124e-02, 1.82175543e-04, -7.89845921e-03, 1.25329448e-02,
       1.14149097e-02, -2.70573124e-02, 5.35404347e-02, 6.60043955e-02,
       4.88938503e-02, 3.47043835e-02, 3.25786434e-02, -4.64618020e-03,
       1.64038893e-02, 3.00309602e-02, 2.30284929e-02, 5.48515916e-02,
       5.38013540e-02, 6.26424104e-02, 4.36499901e-02, 3.98423001e-02,
       5.34695163e-02, 7.17114657e-02, 5.72914369e-02, 1.30411740e-02,
       4.64516645e-03, -1.40214143e-02, 5.60408877e-03, 3.13545391e-02,
       2.89731529e-02, 1.86827518e-02, 1.66633632e-02, 3.22616845e-03,
       1.87357934e-03, -4.55864333e-02, -4.92804050e-02, -3.89159843e-02,
       -5.12598753e-02, -1.42710311e-02, -2.47993488e-02,
       -4.18159328e-02, -4.04279977e-02, -1.07984459e-02, 4.55313064e-02,
       4.73321006e-02, 4.95555438e-02, 8.02640989e-02, 1.02610491e-01,
       1.08470269e-01, 9.46309045e-02, 7.36098215e-02, 5.40269203e-02,
       -4.65697749e-03, -1.31813986e-02, -7.97469984e-04,
       -1.75096057e-02, 3.65912095e-02, 1.86791625e-02, 1.35316537e-03,
       -3.43063904e-04, 2.22188886e-02, -6.73813093e-03, 1.18643772e-02,
       1.87419225e-02, 2.67391955e-03, 2.87931552e-03, 5.12937047e-02,
       1.87746584e-02, 1.95064172e-02, 3.43637913e-02, -1.29928403e-02,
       -4.00926732e-02, -2.13461388e-02, 1.62408110e-02, -2.78852750e-02,
       2.95865666e-02, 1.57591291e-02, -7.74136232e-03, -2.64066383e-02,
       1.00058019e-02, 1.84588507e-02, 2.64519807e-02, 2.80988310e-02,
       -1.06702081e-03, 9.03310999e-02, 4.56419066e-02, 3.26618738e-02,
       2.83523239e-02, -7.72021431e-03, -4.02495414e-02, -2.52992027e-02,
       -3.19651444e-03, -1.76997595e-02, 4.13873531e-02, 8.24519619e-03,
       -2.64611728e-02, -2.72426736e-02, 7.92863499e-03, -5.26398942e-02,
       -1.77170746e-02, -1.05181895e-02, 4.35793437e-02, -8.00210889e-03,
       -3.84708047e-02, -3.53413261e-02, 1.06839677e-02, 2.75720190e-02,
       -4.57966179e-02, -1.92928500e-02, 2.10318919e-02, 5.82080968e-02,
       3.00752465e-02, -2.19554603e-02, -2.93868519e-02, 4.01329286e-02,
       3.28203291e-02, -3.50219868e-02, -2.93056648e-02, 1.00030815e-02,
       2.46891361e-02, -1.40156802e-02, -1.42197432e-02, -2.62176897e-02,
       2.35143080e-02, 3.78529504e-02, -2.20480617e-02, -2.88696531e-02,
       4.49786931e-02, 2.51314621e-02, 1.96706541e-02, -4.79863398e-03,
       -2.98116021e-02, 4.76265997e-02, -3.53546925e-02, -3.06398813e-02,
       3.04888580e-02, 2.38178913e-02, 3.47921513e-02, 2.88575981e-02,
       8.90439004e-03, -4.05101813e-02, -2.16792040e-02, -9.11099603e-04,
       6.11275323e-02, 9.40243676e-02, 5.93198873e-02, 1.84352007e-02,
       3.45613882e-02, 4.61289734e-02, 2.82553788e-02, -1.21846758e-02,
       -4.72350754e-02, -4.93612736e-02, 8.38750694e-03, 3.58117446e-02,
       6.24318495e-02, 7.16531500e-02, 7.35803246e-02, -8.32127966e-03,
       -3.68071645e-02, -3.72324884e-02, -7.87766650e-03, 1.70949120e-02,
       2.57487558e-02, 2.15778165e-02, 9.04735029e-02, 1.13938704e-01,
       7.58682191e-02, -5.52809006e-03, 4.78038974e-02, 5.40894307e-02,
       2.84017399e-02, -2.83118524e-03, -1.15774050e-02, -2.41660606e-02,
       1.16881434e-04, 6.34902939e-02, 6.41718283e-02, -2.06331983e-02,
       -3.13930184e-04, 3.46541256e-02, -4.69625555e-03, 1.70258172e-02,
       -6.60632476e-02, 3.36911008e-02, 4.34631594e-02, 2.92851757e-02,
       5.25421686e-02, 5.74580617e-02, 6.77715149e-03, 1.69490976e-03,
       -5.39791072e-03, 3.13023292e-02, 4.80584279e-02, 6.39560223e-02,
       8.11377913e-02, 1.44568011e-02, 2.98902169e-02, 2.75079384e-02,
       -1.25763975e-02, 3.37736942e-02, -1.40591227e-02, 4.75238450e-02,
       -1.52506176e-02, 7.45506538e-03, -4.52453904e-02, 3.10757980e-02,
       1.03910133e-01, 7.44135231e-02, 1.50929205e-02, 4.57451195e-02,
       7.41298795e-02, 4.65535223e-02, -2.46449094e-03, -8.86566639e-02,
       -6.61910102e-02, -1.76762473e-02, -3.35350633e-02, 9.68436245e-03,
       -3.47243482e-03, -3.26511712e-04, -1.69834495e-02,
       -7.33364001e-02, -1.49678858e-02, 1.33351125e-02, 7.98694417e-02,
       2.98513155e-02, 2.04363968e-02, 1.01621903e-01, 1.19153999e-01,
       2.71965228e-02, -5.85999005e-02, -8.13672543e-02, -5.09122685e-02,
       1.33583266e-02, -2.36765631e-02, 6.26726402e-03, -1.63081028e-02,
       -1.91102307e-02, -8.08947906e-02, -1.05926156e-01,
       -3.27712521e-02, -4.85065579e-03, -2.36448087e-03,
       -2.29473021e-02, -5.71696423e-02, 3.20165753e-02, 1.62133574e-02,
       3.24992463e-02, -2.68586315e-02, -4.44879830e-02, -1.85421053e-02,
       -2.49419957e-02, -5.75201474e-02, -1.95965972e-02,
       -2.73462255e-02, -3.17936577e-02, -2.91189644e-02,
       -1.32539086e-02, -5.13826646e-02, 7.92454649e-03, 2.15729959e-02,
       1.06964419e-02, -6.78307116e-02, -3.93314986e-03, 3.71531420e-03,
       -2.00493336e-02, -5.08281030e-02, -2.74225846e-02,
       -2.39547472e-02, -2.76814364e-02, -3.01240422e-02,
       -2.83301994e-02, -4.27243635e-02, -2.35468522e-02,
       -2.75508016e-02, -3.80483642e-02, -3.31922807e-02,
       -1.32873692e-02, 9.84859653e-04, -7.35786837e-03, -1.83673613e-02,
       8.06517620e-03, -1.00015635e-02, 4.34564630e-04, -1.80176902e-03,
       -2.27106474e-02, -3.73082608e-02, -4.67176316e-03,
       -1.09728901e-02, -1.55007467e-02, 1.85606442e-02, -7.66349956e-03,
       -1.41277036e-03, -2.26973537e-02, -4.85685188e-03, 5.71156945e-03,
       -3.73935304e-03, 1.05674090e-02, 1.28504224e-02, -9.53243463e-04,
       -3.93128954e-03, -7.30387110e-05, -1.53000075e-02,
       -3.29349898e-02, -8.12727865e-03, -8.97200499e-03,
       -1.92222521e-02, -1.66320484e-02, -1.80418827e-02,
       -3.46687734e-02, -2.52771154e-02, 7.56761385e-03, -2.65633427e-02,
       -1.68232340e-02, 2.94024721e-02, 1.86805204e-02, 1.62950298e-03,
       5.23240566e-02, 3.27474847e-02, 6.36980589e-03, -3.35167795e-02,
       -4.28851545e-02, -8.73409770e-03, 7.20042875e-03, -9.88186430e-03,
       7.16559356e-03, 7.03980923e-02, 1.96681172e-02, -4.16292343e-03,
       -5.45372888e-02, -3.25941481e-02, -8.65090452e-03, 4.34366278e-02,
       4.22003455e-02, 1.11020319e-02, 2.59979833e-02, 1.03926519e-02,
       8.22324026e-03, 7.47936731e-03, -5.36954626e-02, -5.08838706e-03,
       2.22577658e-02, 5.83031997e-02, 2.41936883e-03, 8.22313596e-03,
       2.07897220e-02, -1.25492001e-02, -4.52434383e-02, -3.43764648e-02,
       2.41006557e-02, 1.95720773e-02, 4.40238789e-02, 9.04313773e-02,
       1.06905915e-01, 3.35332155e-02, 4.77372110e-03, -4.16929200e-02,
       -5.54432087e-02, -1.34556508e-02, -1.86095461e-02, 2.34214049e-02,
       3.16992328e-02, 1.08378129e-02, -1.06851710e-02, -3.66414338e-03,
       -6.12068176e-02, -3.44790444e-02, 1.87243205e-02, 2.66815294e-02,
       7.72088617e-02, 6.96513653e-02, 5.35467714e-02, 4.72887158e-02,
       4.11943207e-03, -4.91793826e-02, -4.38169539e-02, 2.56714821e-02,
       7.26371817e-03, 2.26459671e-02, 1.80440340e-02, -1.03369541e-03,
       -1.91453230e-02, -3.50361764e-02, -4.31317762e-02,
       -7.52923563e-02, -6.27285382e-03, -1.60118602e-02, 9.36766155e-03,
       1.62088312e-02, 5.63608436e-03, -3.54203135e-02, 1.65227391e-02,
       -4.09339294e-02, 7.72943255e-04, 3.85324284e-02, -1.04838749e-02,
       2.16112770e-02, 2.15927176e-02, 2.33794772e-03, -2.93422844e-02,
       -3.92734259e-03, -8.04615847e-04, -1.61038188e-03, 7.56395841e-03,
       -2.58668773e-02, 1.52652594e-03, 2.44928934e-02, -1.60651058e-02,
       -4.76401672e-03, 2.47983634e-03, -4.69706170e-02, -3.41654848e-03,
       1.70239508e-02, -3.90194282e-02, -1.41057298e-02, 1.12847118e-02,
       6.06268225e-03, 1.77144088e-04, 2.97689531e-02, 8.46596900e-03,
       -1.38379820e-02, 4.86869365e-02, -4.70390124e-03, -1.38626862e-02,
       -6.23411406e-03, -1.60378814e-02, -3.24572250e-02, 1.49976101e-03,
       -2.23747026e-02, -3.97167504e-02, 5.38144670e-02, 4.50117625e-02,
       -1.79487448e-02, -7.24407192e-03, -1.24878716e-02,
       -5.90648362e-03, 5.01056761e-02, -2.55499426e-02, -2.22223364e-02,
       1.18576856e-02, -4.89453003e-02, -5.35345748e-02, -1.53115951e-02,
       1.69392824e-05, -1.00741321e-02, 2.70634536e-02, 1.82617232e-02,
       -4.76526655e-03, 3.26643214e-02, -3.90780158e-02, -3.89219597e-02,
       -2.34620441e-02, -4.41161469e-02, 1.28164366e-02, 7.44343847e-02,
       2.73514893e-02, -2.86523290e-02, 7.76767060e-02, 1.87040716e-02,
       -4.16267489e-04, 1.69124156e-02, -2.72451695e-02, -6.96189748e-03,
       5.78751229e-02, -3.58927101e-02, 7.29585940e-04, 4.28907275e-02,
       -3.84629816e-02, -1.99732324e-03, -8.09741020e-03,
       -2.61629708e-02, -4.87170368e-02, 2.36397460e-02, -3.84409204e-02,
       -2.70412285e-02, 4.73989062e-02, -2.19630431e-02, -1.54875321e-02,
       1.01336436e-02, -4.47491258e-02, 5.53610921e-03, 1.00700818e-01,
       2.38133315e-03, -3.47922966e-02, 9.67982039e-03, -4.20195833e-02,
       -1.55811533e-02, -1.79404840e-02, -2.99386345e-02,
       -4.13458236e-02, 4.18806933e-02, -1.33031579e-02, 2.29731724e-02,
       2.11565625e-02, -3.58629636e-02, -2.52622887e-02, -6.21053763e-03,
       -2.12138947e-02, -6.49871826e-02, -2.18492299e-02,
       -1.61006525e-02, 4.45386916e-02, 2.24609412e-02, -1.59336478e-02,
       -2.50153672e-02, -1.67529248e-02, -1.08573660e-02,
       -1.29369395e-02, 1.54639697e-02, 2.34494079e-02, 8.77642911e-03,
       -1.34276440e-02, -6.44096211e-02, -4.27510105e-02,
       -1.62821717e-03, -3.56657319e-02, -2.71708444e-02, 6.55655935e-03,
       -4.05361224e-03, 6.75200522e-02, 4.60398048e-02, -2.47250181e-02,
       -4.89611402e-02, -4.26105484e-02, -8.95413291e-03,
       -6.60300581e-03, 2.99420711e-02, 3.24975811e-02, 3.89608145e-02,
       2.74204183e-02, 7.53991771e-03, 6.79742172e-03, -6.64528750e-04,
       1.20780081e-03, -1.52662210e-02, -4.97260550e-03, 1.90056786e-02,
       4.23389822e-02, 3.27260606e-02, 3.20099816e-02, 1.44798970e-02,
       3.39291766e-02, 3.66301723e-02, 3.72998789e-02, 3.33397500e-02,
       1.66797191e-02, 8.56409296e-02, 1.33462036e-02, -1.46052921e-02,
       -1.44490302e-02, -1.25268372e-02, 2.99213659e-02, -4.66108648e-03,
       1.49673223e-02, 1.67684667e-02, 4.28453721e-02, 2.42671669e-02,
       2.83847377e-02, 1.81303769e-02, 4.45305444e-02, 2.05641892e-02,
       -2.04622065e-05, -1.11832959e-03, 4.28873934e-02, 3.40911769e-03,
       2.51048654e-02, 3.32400985e-02, 6.36738688e-02, 8.86801332e-02,
       8.36758390e-02, 6.22200295e-02, 5.40282056e-02, 2.61165444e-02,
       -5.16648814e-02, -6.58352971e-02, -3.13048735e-02,
       -3.77683379e-02, 1.36964023e-02, -2.89085247e-02, -6.14301884e-04,
       -1.29269725e-02, -1.24182645e-02, 1.50383869e-02, 1.63984541e-02,
       2.67124586e-02, 8.69273320e-02, 1.00041248e-01, 3.81265804e-02,
       -5.37387654e-03, 6.15618890e-03, 1.78618431e-02, -2.06180792e-02,
       -5.38594835e-02, -3.11426092e-02, -4.12194151e-03, 5.32115474e-02,
       -4.73005883e-02, -3.71670499e-02, -1.95530429e-02,
       -3.35214548e-02, -1.51799414e-02, -2.26060133e-02, 1.20200822e-02,
       3.87052000e-02, 2.26738099e-02, 6.85215667e-02, 4.66779247e-02,
       1.89257301e-02, 2.03489745e-03, -2.27364469e-02, -3.86646688e-02,
       -2.77271196e-02, 2.86844140e-03, -1.86113864e-02, -9.33406991e-04,
       -2.07795594e-02, -4.64201346e-02, -2.81705484e-02, 2.35582981e-02,
       -9.02010873e-03, 2.81947590e-02, 6.54528365e-02, 3.91694196e-02,
       4.76498343e-02, 2.98066288e-02, 4.05317098e-02, 1.65085476e-02,
       -5.74155292e-03, -2.81517729e-02, 1.86036862e-02, 2.46999897e-02,
       -8.23508762e-03, -1.04725286e-02, -1.07210111e-02,
       -1.27966907e-02, -1.47104552e-02, 5.34215830e-02, -1.43631008e-02,
       -1.22930938e-02, 8.99029803e-03, -1.71973035e-02, -7.97976553e-03,
       1.11407163e-02, 4.07927716e-03, 6.73255092e-03, 3.17877047e-02,
       -4.44766274e-03, -2.81850304e-02, 3.72717455e-02, -2.56680865e-02,
       4.33694152e-03, -1.75998174e-02, -1.95513554e-02, 1.77483000e-02,
       5.30324364e-03, -2.19972618e-02, -5.74931561e-04, 8.26149434e-03,
       -1.35703413e-02, 1.28510501e-02, -2.95934621e-02, -2.22963504e-02,
       -1.14892877e-03, 3.77731360e-02, 8.10511224e-03, -3.20509225e-02,
       2.67764181e-02, 3.35827423e-03, 4.77154693e-03, 2.31450875e-04,
       -1.42963196e-03, 3.73541676e-02, -4.10109125e-02, -5.73426634e-02,
       -3.06114852e-02, -3.00358306e-03, 6.06392622e-02, 7.26883560e-02,
       7.49186501e-02, 1.57380253e-02, -8.52968451e-03, -5.49014332e-03,
       2.54151621e-03, -1.41471047e-02, -2.21214094e-03, 5.15834196e-03,
       8.64628479e-02, 1.07545607e-01, 1.00785911e-01, 3.82809639e-02,
       -5.98924719e-02, -5.46999201e-02, -4.48812358e-02,
       -4.61723618e-02, 9.90539230e-03, -7.31283333e-03, 2.60633975e-02,
       -3.33155319e-02, -4.29688618e-02, 4.59233020e-03, -1.07001117e-03,
       -1.92408264e-02, -8.16688593e-03, 9.18132253e-03, 2.33269967e-02,
       4.48941588e-02, 2.12296769e-02, 6.98638195e-03, 7.88053572e-02,
       7.29603022e-02, -6.01426605e-03, -2.04471387e-02, -2.91337781e-02,
       -1.50900418e-02, 2.44872216e-02, 5.34564033e-02, 7.02948049e-02,
       4.90689166e-02, 9.09269378e-02, 3.40002738e-02, -4.92122136e-02,
       2.55815056e-03, 1.07932594e-02, 4.12653387e-02, -1.99326687e-03,
       -1.91345681e-02, 3.77320088e-02, 4.98036556e-02, -1.36522343e-02,
       -1.54335788e-02, -2.15005893e-02, -3.85251381e-02,
       -3.35379839e-02, -1.82812028e-02, 2.16461532e-02, 2.94996817e-02,
       6.76588938e-02, 1.34112397e-02, -2.05385480e-02, 3.44973081e-03,
       -7.47220684e-03, -1.17715783e-02, -3.35279405e-02,
       -1.72276571e-02, 6.17850013e-03, 5.49840555e-02, 4.95245941e-02,
       -1.94625016e-02, -3.66938952e-03, 9.10649449e-02, 1.56400234e-01,
       7.23583177e-02, -4.28020991e-02, -7.40452558e-02, -3.49305198e-02,
       -1.43430047e-02, -6.27213567e-02, -3.62811759e-02,
       -3.58487889e-02, 2.14038920e-02, 2.92171631e-02, -2.19931267e-02,
       -2.57218946e-02, 4.55065370e-02, 9.58876568e-04, -4.79795001e-02,
       -1.48169138e-02, 8.60484913e-02, 1.34121627e-01, 1.13706499e-01,
       -1.45013910e-02, -5.87669536e-02, -3.41714434e-02,
       -4.46515270e-02, -6.91986829e-02, -7.24012544e-03,
       -1.28601110e-02, 5.64790182e-02, 8.11839849e-02, -1.70107577e-02,
       -3.67777795e-02, 2.18242314e-02, 2.87684277e-02, 3.05697438e-04,
       -5.23133315e-02, -3.95326056e-02, -5.51040610e-03, 3.73764411e-02,
       1.71649475e-02, -1.35892574e-02, -6.02500455e-04, -3.17017846e-02,
       -3.97347882e-02, -6.89666206e-03, -3.15946639e-02,
       -2.21258402e-02, -2.85176584e-03, -2.29267012e-02, 1.90476992e-03,
       3.03848851e-02, 3.28531936e-02, 6.70638052e-04, -2.34379135e-02,
       1.07312333e-02, 3.10558062e-02, 1.14647813e-01, 4.25202213e-02,
       -1.31274490e-02, -9.35657509e-03, -1.69300660e-02,
       -9.43559129e-03, -3.10442457e-03, -6.64274255e-03,
       -1.99999344e-02, 3.04444227e-02, -8.78335815e-03, -5.67468163e-03,
       1.49821695e-02, -3.37405317e-02, -1.62558667e-02, -1.84591440e-03,
       -1.91676728e-02, -3.47722955e-02, 2.92285089e-03, -9.80741065e-03,
       3.68083641e-03, 1.98678533e-03, -3.91578972e-02, -3.43215391e-02,
       -2.04180833e-02, -4.45594601e-02, -6.90265298e-02,
       -4.18435223e-03, 2.05733255e-02, 5.04217632e-02, 3.44109312e-02,
       -2.34081931e-02, -7.51117244e-03, -1.82176959e-02,
       -2.99117714e-02, -7.73313083e-03, 3.89988460e-02, 9.59234778e-03,
       2.66078189e-02, 2.23861262e-02, -2.81506982e-02, -1.48442071e-02,
       -3.00366990e-02, -7.03131827e-03, 6.30004518e-03, 5.17108887e-02,
       2.68278196e-02, -2.95418836e-02, 4.28435532e-03, -4.28333093e-04,
       1.87318027e-02, -1.40828537e-02, 9.63489932e-04, -3.81368287e-02,
       6.86057610e-03, 4.08582389e-02, -3.76653485e-02, -3.55514064e-02,
       -3.17774154e-03, 2.94979122e-02, -2.49485541e-02, -3.65487300e-02,
       -2.24417299e-02, 9.55704413e-03, 5.73376846e-03, 3.53725143e-02,
       1.99535489e-02, -9.22810379e-03, 2.51074508e-03, -1.91140380e-02,
       2.86777187e-02, 1.30046885e-02, 8.84101987e-02, 4.98673059e-02,
       -2.16159858e-02, 2.52585462e-03, 1.59398913e-02, -1.14263874e-02,
       9.71142203e-03, -2.07542479e-02, -3.80528998e-03, 5.61430007e-02,
       3.89630757e-02, -1.47071751e-02, -2.55077295e-02, -1.57523584e-02,
       1.40082315e-02, -2.37550698e-02, -2.02276632e-02, -8.51744600e-03,
       1.03368321e-02, 1.14097139e-02, -2.62082517e-02, -1.91663969e-02,
       -4.16583456e-02, -2.15916010e-03, -1.61809698e-02,
       -4.59833033e-02, -1.91909093e-02, -4.17367145e-02,
       -1.21185090e-02, 3.83536480e-02, 2.21152864e-02, -1.15334149e-03,
       8.85097403e-03, -1.99828763e-02, -2.65034921e-02, 1.66614950e-02,
       6.51225075e-02, 7.27573410e-02, 5.75802177e-02, 2.57757064e-02,
       -7.87578430e-03, 2.80237347e-02, -5.78533905e-03, -1.95424184e-02,
       2.77849026e-02, 1.53932553e-02, 6.92999512e-02, 2.00117584e-02,
       1.84353571e-02, -1.61429252e-02, 8.11035186e-03, -1.81115996e-02,
       -4.40872759e-02, -3.29790898e-02, -2.38148812e-02,
       -2.96675321e-02, 1.05435746e-02, -1.78360287e-02, -5.28722480e-02,
       -9.51810740e-03, 7.19102006e-03, -3.35615501e-02, -4.52652201e-02,
       -1.72318481e-02, -5.09214168e-03, 8.99454653e-02, 5.26225157e-02,
       -7.77593767e-03, 2.06229463e-02, 2.16471627e-02, -2.87043825e-02,
       -2.97900173e-03, 1.59321241e-02, 5.09517156e-02, 3.61581221e-02,
       1.33552002e-02, -1.39143784e-02, -4.78845462e-03, 3.68586294e-02,
       -3.84321474e-02, -2.91492827e-02, 1.91407092e-02, 2.40861326e-02,
       7.31433928e-03, -1.61853025e-03, -6.81866929e-02, -4.71579060e-02,
       -2.43597124e-02, -1.41839189e-02, -2.54479814e-02, 1.34754376e-02,
       2.69745104e-02, 3.64309773e-02, -3.41556361e-03, -6.77311942e-02,
       -4.78164591e-02, -5.12859114e-02, -4.91407812e-02,
       -3.42462398e-02, 1.18441861e-02, 4.41111997e-02, 3.17346081e-02,
       1.40574565e-02, -1.46863172e-02, -2.01839339e-02, -6.11139135e-03,
       -1.76182501e-02, -2.72376072e-02, 3.79535183e-02, 5.55671640e-02,
       3.51307169e-02, 3.83005920e-03, -4.27485146e-02, -2.01778356e-02,
       -1.79911517e-02, -2.89165676e-02, -4.51755933e-02, 4.21105176e-02,
       2.86721531e-02, -1.72923505e-03, 2.55191717e-02, -2.76866127e-02,
       -1.82360467e-02, -1.96251720e-02, -4.67738099e-02,
       -2.30075363e-02, 6.67881668e-02, -4.46924148e-03, -4.51856479e-03,
       1.37060406e-02, -3.90401855e-02, -1.70699880e-02, -4.70161848e-02,
       -1.98961534e-02, -1.73723437e-02, 6.36813343e-02, 1.54416694e-03,
       -6.25844952e-03, 1.40568158e-02, -3.00360397e-02, 6.33814512e-03,
       1.39917526e-02, -2.83325482e-02, -2.99961790e-02, 3.49923447e-02,
       -5.94951306e-03, 1.02143278e-02, 6.15086872e-03, -4.63901758e-02,
       -1.94024481e-02, 6.82977960e-04, -2.30415557e-02, -3.40250097e-02,
       2.09071990e-02, -4.30176919e-03, 6.01989077e-03, 2.39113439e-02,
       -5.33222891e-02, -3.99704129e-02, -4.81050126e-02,
       -3.61907557e-02, -1.15442509e-02, 3.63208167e-02, 2.61655841e-02,
       6.14169203e-02, 4.01029326e-02, -3.05937100e-02, -5.47719672e-02,
       -3.95602882e-02, -8.32455698e-03, 4.09551605e-04, 4.57741767e-02,
       4.03476544e-02, -6.09137118e-03, -1.22412089e-02, -5.44379205e-02,
       -2.28237566e-02, -7.59771909e-04, -2.86750756e-02,
       -1.53761646e-02, 6.39466103e-03, -1.37829538e-02, 1.71788856e-02,
       3.53310001e-03, -3.49507965e-02, -3.45194601e-02, -1.38424132e-02,
       -2.08740439e-02, -1.81623939e-02, -2.08525569e-03, 5.53606916e-03,
       6.80113733e-02, 3.34261432e-02, 2.81153899e-02, -1.14226910e-04,
       1.00780204e-02, 6.05471097e-02, 3.49616669e-02, 5.26682138e-02,
       4.59190607e-02, 3.36813927e-02, 2.91925166e-02, 3.81185524e-02,
       1.31049845e-02, 2.77131423e-02, 3.55733410e-02, 4.86293919e-02,
       3.80064882e-02, 6.58657253e-02, 3.41127217e-02, 1.42040569e-02,
       -3.57163581e-03, 1.96288674e-04, 1.38022192e-03, 9.97933745e-03,
       1.54403122e-02, 4.10939939e-03, -6.64330274e-03, -5.22164535e-03,
       -3.17935133e-03, 1.46480883e-02, -1.85102485e-02, 4.16987529e-03,
       -7.53809884e-03, -1.20700523e-02, -4.04982604e-02,
       -1.82661135e-02, 3.28644365e-02, 6.00003861e-02, 6.28326163e-02,
       9.03585479e-02, 9.49575305e-02, 6.20415956e-02, 3.74431238e-02,
       4.03012708e-02, 6.24320917e-02, 2.25630626e-02, -9.47007071e-03,
       -1.56608447e-02, 2.25288179e-02, 2.71309540e-02, -2.14708485e-02,
       -2.10973732e-02, -1.48045076e-02, 1.13921547e-02, 4.81804973e-03,
       -8.14932937e-05, 3.80654484e-02, 4.22405675e-02, 2.55850777e-02,
       2.04306692e-02, 1.74291786e-02, -1.49118574e-02, -6.09866995e-03,
       -2.98091453e-02, -4.88539487e-02, -2.33097002e-02,
       -2.24943757e-02, -2.13786904e-02, -4.86024432e-02,
       -3.50783020e-02, -5.97916096e-02, -2.85011586e-02, 2.33050548e-02,
       5.91112813e-03, 5.24068018e-03, 4.86266427e-02, -1.13900658e-02,
       2.69568767e-02, 1.28812520e-02, 1.95294246e-02, 3.13106328e-02,
       -3.05056889e-02, -2.52801869e-02, 1.52660329e-02, 1.04683600e-02,
       -3.89568172e-02, 4.65687225e-03, -1.42885437e-02, -3.86001691e-02,
       -1.49188284e-02, 1.54446403e-03, 4.19046404e-03, -7.23371375e-03,
       4.05223221e-02, -2.73565296e-03, 1.84285976e-02, 5.08537330e-03,
       9.50555876e-03, 2.57335771e-02, -2.67738793e-02, -2.87159160e-02,
       9.29500442e-04, 4.73113395e-02, -1.62025895e-02, 4.49758917e-02,
       -7.69639062e-03, -3.04832049e-02, -1.15966168e-03, 9.25730728e-03,
       -3.70255448e-02, -1.34690274e-02, -1.01602322e-03, 4.34241630e-03,
       -1.67752411e-02, -3.60455513e-02, -3.14725228e-02, 8.45537893e-03,
       1.12288147e-02, -4.41598613e-03, 5.69446990e-03, 1.27236014e-02,
       -9.06891190e-03, -1.03237843e-02, -8.94044060e-03, 1.04518458e-02,
       2.61108205e-02, 3.20103281e-04, -3.88223268e-02, -2.00712532e-02,
       -2.75355036e-04, 4.40659150e-02, 4.03612107e-02, -3.26278359e-02,
       -1.84573233e-02, 2.61300541e-02, 1.96264777e-02, 2.42125504e-02,
       2.00952645e-02, 1.37698203e-02, -3.09668630e-02, 5.76189049e-02,
       8.45182594e-03, -4.81694983e-03, -2.64578353e-04, -2.44246460e-02,
       -3.19719203e-02, -8.67376104e-03, 1.34256873e-02, -3.63300228e-03,
       -2.83823740e-02, 5.17278630e-03, -1.51862884e-02, -2.17019003e-02,
       3.31110298e-03, -2.16532648e-02, -6.58302242e-03, 1.03025092e-02,
       1.89118320e-03, -1.94035862e-02, 2.57483101e-04, -3.45370509e-02,
       7.17424089e-03, 8.31678417e-03, 1.58645902e-02, 2.10842080e-02,
       1.76700372e-02, -1.35899410e-02, -2.65216790e-02, -2.18417738e-02,
       -3.36441211e-02, 2.71115894e-03, 2.58837659e-02, 1.67614631e-02,
       2.65076645e-02, 3.55248749e-02, 2.66887583e-02, -1.53033631e-02,
       -2.77507193e-02, -3.40010179e-03, 1.38554778e-02, 2.24867482e-02,
       8.87362007e-03, -5.92843816e-03, 2.07257103e-02, 2.66414508e-02,
       4.58337460e-03, -2.72305235e-02, -3.95635143e-02, -2.10461370e-03,
       -4.97872522e-03, 4.40651961e-02, 2.16617975e-02, -9.17277939e-04,
       8.09593778e-03, 1.60882641e-02, -1.51023474e-02, -3.27343009e-02,
       -3.84453200e-02, 9.58944391e-03, -9.06627101e-04, -3.27866338e-03,
       -7.23289652e-03, 1.44330133e-02, 1.05699245e-02, -7.63030304e-03,
       -5.49081806e-03, 3.82415298e-03, -7.38365948e-03, 1.50070740e-02,
       7.53562804e-03, -1.58006735e-02, 7.55772786e-03, -9.38660000e-03,
       -1.12534808e-02, -1.66352484e-02, 1.46992772e-03, -3.79398912e-02,
       3.50869149e-02, 4.51068431e-02, -1.29765784e-02, -1.65353864e-02,
       4.85203527e-02, 4.86522652e-02, 1.71485934e-02, -2.19193641e-02,
       -8.51490051e-02, -3.95175070e-02, -1.43418545e-02,
       -3.37447599e-02, 1.87048689e-03, -4.82731871e-03, 1.20566599e-02,
       4.90482189e-02, -1.96072608e-02, -2.61497777e-02, -6.56750239e-03,
       1.15410965e-02, -2.63284426e-02, 6.26578549e-05, -2.48810295e-02,
       6.68089744e-03, 4.97466326e-03, -2.65228609e-03, -2.91948952e-02,
       -5.73262833e-02, -1.58413965e-02, -1.98702328e-02,
       -9.36846994e-03, -2.82393321e-02, -3.53907943e-02,
       -1.57091208e-02, -2.00093142e-03, -1.65830255e-02, 1.49611197e-02,
       -8.66972562e-03, -1.13024795e-02, -9.89751657e-04,
       -2.51616817e-02, 1.82990879e-02, 9.85017940e-02, 5.51769510e-02,
       -5.24918223e-03, -1.30605139e-02, -4.27833125e-02,
       -2.10713763e-02, 1.75443180e-02, -3.70728597e-02, -1.78461000e-02,
       5.58392256e-02, 2.54222415e-02, 3.03861946e-02, -7.42381252e-03,
       7.54401879e-03, 1.28115586e-04, 8.60280823e-03, -4.44894284e-02,
       -5.16925426e-03, 8.01404193e-02, 6.42364621e-02, -1.23354816e-03,
       -1.80807356e-02, -2.48689726e-02, -1.56151792e-02, 1.34975147e-02,
       -6.62271604e-02, -3.20183598e-02, 1.08635435e-02, -7.59871583e-03,
       2.20138151e-02, 3.12905833e-02, 9.32758301e-03, 2.41798144e-02,
       1.82071682e-02, -2.01204736e-02, -6.66881725e-03, 4.78693023e-02,
       2.54547782e-02, 1.80150522e-03, -3.05677392e-03, -5.24707697e-03,
       -7.80818379e-03, 1.39503414e-02, -1.90643836e-02, -1.61266048e-02,
       2.38335393e-02, -9.61627159e-03, 1.08690010e-02, 3.82673033e-02,
       3.02809943e-03, 2.26129089e-02, 4.29686345e-03, -2.37948950e-02,
       -3.01240701e-02, 1.93926282e-02, 9.42405034e-03, 1.00729251e-02,
       2.04187892e-02, -1.24327037e-02, -2.34649144e-02, 1.59562044e-02,
       -2.30113044e-02, -3.73968482e-02, 2.65210718e-02, 7.60860136e-03,
       -1.79407876e-02, -1.02061713e-02, -1.00471568e-03, 1.51280249e-02,
       3.11454404e-02, 2.19328348e-02, 1.17796641e-02, 4.52414192e-02,
       1.33540593e-02, -1.80728734e-02, 3.32114063e-02, 1.53505085e-02,
       -2.25749053e-02, 4.21306714e-02, 4.18249564e-03, 5.53924730e-03,
       3.78589593e-02, 1.15613826e-02, 6.49830606e-03, 2.90344227e-02,
       -2.61064507e-02, 1.49897614e-03, 4.31483947e-02, 1.38048222e-03,
       -1.85020603e-02, 8.34515598e-03, 1.62343234e-02, -2.64940001e-02,
       1.41518014e-02, -2.40630805e-02, -2.73511074e-02, 2.45858133e-02,
       -2.04845071e-02, -8.72168748e-04, -1.57979224e-02,
       -4.78984509e-03, -6.55849045e-03, 4.41252179e-02, 2.89867390e-02,
       2.06375401e-02, 4.67847614e-03, 2.20625472e-04, -1.09773269e-02,
       3.82185951e-02, 2.58390047e-02, 1.15631556e-03, -6.19494217e-03,
       -1.69997048e-02, 2.87889931e-02, 2.12662350e-02, 5.67648746e-03,
       5.42279473e-03, 3.63211446e-02, 1.95009429e-02, 1.35346586e-02,
       2.61647720e-02, -8.12778994e-03, -1.34412674e-02, 3.35249351e-03,
       -1.68705930e-03, -1.78237483e-02, -3.23497057e-02,
       -1.11024473e-02, -3.03566782e-03, 1.88906342e-02, -1.57912448e-03,
       -1.76891349e-02, 1.52718090e-02, -2.47604959e-03, -3.65349613e-02,
       -1.77957937e-02, 9.32565890e-03, 1.97969866e-03, -7.91496970e-03,
       -2.70247068e-02, 2.03381348e-02, 2.31361203e-02, 9.82229039e-03,
       4.80223307e-03, 4.97473814e-02, 7.48522067e-03, 1.48525659e-03,
       -2.11284379e-03, -1.99553017e-02, 1.53495809e-02, 1.22116925e-02,
       -1.33450225e-03, 4.04203078e-03, 2.09287219e-02, 4.69043414e-04,
       8.67203251e-03, 2.74056615e-03, -1.84634831e-02, -7.99578556e-04,
       -9.72917117e-03, -1.13077434e-02, -1.95959918e-02, 6.59745978e-03,
       -3.84396315e-03, -2.39214557e-03, -9.18857940e-03,
       -2.52588727e-02, -7.10490951e-03, 1.91829540e-02, -1.32225994e-02,
       -1.17335590e-02, 1.14758005e-02, -2.02082787e-02, -2.00206414e-02,
       7.46254902e-03, 4.22619935e-03, 2.96975970e-02, 5.90191875e-03,
       -2.91059213e-03, -2.44041253e-02, 2.89083570e-02, -1.31823902e-03,
       -2.16751220e-03, -2.18930133e-02, -2.33694352e-02, 2.36272831e-02,
       4.31148848e-03, 8.10442027e-03, -4.00083885e-02, 1.61224678e-02,
       -1.09736994e-02, -8.27271864e-03, 6.99668052e-03, -1.87723264e-02,
       -1.95704307e-03, -9.96159390e-03, -3.58789868e-04,
       -2.89926492e-02, -1.31470161e-02, -1.53788561e-02,
       -4.57091294e-02, -2.39468589e-02, -4.17064689e-02,
       -2.11017951e-02, -3.75936925e-02, -4.28508362e-03,
       -3.85631025e-02, -8.62269546e-04, -1.74217727e-02,
       -2.09092889e-02, -3.62207694e-03, -7.36754446e-04, 4.70966585e-02,
       5.97597286e-02, 2.62968913e-02, 6.08736742e-03, 2.72508021e-02,
       -8.54803342e-03, -1.83127467e-02, -2.65817270e-02,
       -3.07543278e-02, 6.39467326e-04, 5.57972156e-02, 7.89368805e-03,
       -1.16971182e-02, 6.05341373e-03, -1.75082982e-02, -4.82304543e-02,
       -2.32140440e-02, -1.07057774e-02, 3.42170857e-02, 2.75786314e-02,
       2.12316066e-02, -1.19797336e-02, 1.41030578e-02, -1.35345962e-02,
       -4.77876849e-02, -2.18016952e-02, -3.68582979e-02, 1.67485550e-02,
       -9.88904107e-03, 1.86018385e-02, -3.09289098e-02, -4.79546934e-03,
       -4.22887206e-02, -2.51014391e-03, -1.60756260e-02,
       -1.09682800e-02, 3.62443142e-02, 7.22691044e-02, 1.66040342e-02,
       1.53099431e-03, 1.96269229e-02, 1.44024258e-02, -1.19916266e-02,
       1.92622581e-04, -4.82382672e-03, 3.98657024e-02, 1.48341404e-02,
       1.52957961e-02, 3.66102569e-02, 3.79041098e-02, 1.28512885e-02,
       -1.16268722e-02, -3.08386832e-02, -4.35177498e-02, 3.66287380e-02,
       2.71476898e-02, 5.55755757e-03, -3.58366291e-03, 1.64266361e-03,
       8.66755936e-03, -2.11268943e-02, -1.49346394e-02, -3.90391685e-02,
       -1.02655357e-02, -2.40733922e-02, 3.95455817e-03, 1.64263137e-02,
       -1.39978183e-02, -1.92249147e-03, -3.98391904e-03, 3.79069000e-02,
       3.61339264e-02, 7.76904970e-02, 4.99155149e-02, 7.22977966e-02,
       3.77003886e-02, 3.21643129e-02, 1.13731548e-02, 5.01076179e-03,
       4.62457910e-02, 2.67934650e-02, 1.95241161e-02, 5.14979381e-03,
       2.96313725e-02, 1.20671103e-02, -1.82803925e-02, 1.45197306e-02,
       -1.58371907e-02, 3.33808623e-02, 2.04715785e-03, 1.20688300e-03,
       -2.96139903e-02, 7.57572707e-03, 1.55967912e-02, -1.65320560e-02,
       -6.61736727e-03, -2.57579722e-02, 7.35874195e-03, 9.32761189e-03,
       -8.29027151e-04, -1.52532225e-02, -4.48352434e-02,
       -2.09261738e-02, -2.47442797e-02, 7.93121662e-03, 2.22460851e-02,
       3.03158481e-02, 4.37118225e-02, 3.41793932e-02, 1.12841884e-02,
       7.70939700e-03, 1.86715741e-02, -2.19641700e-02, 5.52773289e-03,
       8.05535819e-03, -5.94262220e-03, 9.52566788e-03, 5.10405982e-03,
       -1.39414696e-02, -3.27665657e-02, -2.25094091e-02,
       -5.91281690e-02, -2.23249532e-02, 5.62310498e-03, 1.20488042e-02,
       3.45877558e-02, 1.20999599e-02, -1.45903667e-02, -3.56578939e-02,
       1.71544030e-02, -2.09494177e-02, -5.20223472e-03, 1.42178647e-02,
       5.62509941e-03, -1.09151658e-03, -3.29144709e-02, -4.66729179e-02,
       -3.31139416e-02, -5.65952854e-03, -3.91503759e-02,
       -2.18486767e-02, 3.91857550e-02, 1.18864346e-02, 4.51999297e-03,
       2.11553313e-02, -2.15218924e-02, -1.08592426e-02, -1.08547360e-02,
       -4.04994413e-02, 1.03737656e-02, 2.26078741e-02, -2.36781593e-02,
       -9.18594748e-03, 2.25058310e-02, -3.47874165e-02, 3.54856513e-02,
       -2.37882622e-02, -4.90999743e-02, 2.64065806e-04, 3.56818922e-02,
       1.80025063e-02, -4.34841611e-04, 1.59259494e-02, -2.08341442e-02,
       9.76378378e-03, 8.22191872e-03, -3.61695960e-02, 5.59194712e-03,
       5.63846640e-02, -2.76844092e-02, -2.41878778e-02, 2.48176139e-02,
       -9.86806396e-03, 2.88163368e-02, -3.02321501e-02, -4.59389687e-02,
       2.06648358e-04, 6.50771544e-04, -4.16066051e-02, -5.92329651e-02,
       -3.82980406e-02, 2.54606809e-02, 4.96776141e-02, -2.51281764e-02,
       -1.87592171e-02, 1.27003845e-02, 1.45774346e-03, -2.56719720e-02,
       -1.43698938e-02, 3.49015207e-03, -6.29708963e-03, 5.37514389e-02,
       -1.17836893e-02, -5.54543082e-03, 8.26083776e-03, 6.14986420e-02,
       -1.16774170e-02, -9.67664830e-03, 1.43017946e-03, -1.55427288e-02,
       1.78551897e-02, -2.97649801e-02, -2.90971827e-02, 5.11936955e-02,
       5.80989942e-02, -5.07294573e-03, -1.46905389e-02, 4.26136553e-02,
       3.95792648e-02, 1.11511787e-02, -2.90464833e-02, 3.01243388e-03,
       5.77990077e-02, -1.52192824e-02, -9.52879712e-03, -5.50004747e-03,
       3.78942024e-03, -1.17929205e-02, -5.20631066e-03, -1.97013225e-02,
       -1.58402454e-02, 4.05482808e-03, 3.07396869e-03, 9.48144030e-03,
       -2.56129424e-03, 2.48713903e-02, 3.95738287e-03, 8.61118734e-03,
       -1.90053321e-02, 9.98272654e-03, 2.33054217e-02, 2.01655403e-02,
       -2.80666305e-03, -7.54960300e-03, 2.87816278e-03, 1.09975180e-02,
       -7.25631136e-03, -7.01518450e-03, -1.55451996e-02, 1.74163580e-02,
       2.63614338e-02, 3.72180231e-02, 1.87246390e-02, -1.06014777e-02,
       -3.64978891e-03, 4.73274477e-02, 1.57669540e-02, -1.00903595e-02,
       1.32491533e-02, -3.06142680e-03, 3.33785266e-02, 1.93367731e-02,
       2.54636891e-02, -7.82537647e-03, 2.43620928e-02, -1.16110258e-02,
       4.73613106e-03, -1.13392528e-02, -3.42212559e-04, 3.02858781e-02,
       1.56220584e-03, 7.48512289e-03, -2.16221530e-02, -1.96577404e-02,
       -7.60022085e-03, -1.52245341e-02, -1.10826064e-02, 1.32686207e-02,
       4.54277880e-02, 5.50365485e-02, 4.14443910e-02, 2.10969653e-02,
       5.69221340e-02, 2.78772227e-02, 2.29879562e-03, 2.03385148e-02,
       6.99015241e-03, 2.06750818e-02, 1.55461589e-02, -1.48143154e-03,
       2.14193133e-03, -1.62790958e-02, -2.73770727e-02, -9.05499142e-03,
       1.70110818e-02, -2.72109136e-02, 2.49961633e-02, 1.67096462e-02,
       -1.34395910e-02, -1.02698123e-02, -1.53468759e-03, 1.16705326e-02,
       1.67395044e-02, -1.60027891e-02, -3.29874754e-02, -5.61735220e-03,
       1.96367018e-02, -1.57116924e-03, -2.03218646e-02, -1.08894454e-02,
       -7.40541425e-03, -1.03701530e-02, -3.34854349e-02, 6.13078196e-03,
       1.43661555e-02, 1.13332011e-02, -2.30508316e-02, -2.44191028e-02,
       -1.05736014e-02, -2.74588577e-02, 3.07898019e-02, 6.59463042e-03,
       3.55952443e-03, -1.29480641e-02, 9.80109442e-03, -2.00940575e-02,
       -4.35184278e-02, -2.38713380e-02, -3.32359634e-02,
       -4.62593557e-03, -9.18952189e-03, -2.83484842e-04, 1.82210077e-02,
       3.39164548e-02, 1.56379435e-02, 1.34755289e-02, -1.02592558e-02,
       -8.54350720e-03, 3.21427323e-02, -1.87618844e-02, -3.96299995e-02,
       -1.95376705e-02, -8.64840485e-03, 8.49244930e-03, 2.13159770e-02,
       -3.84793542e-02, -4.52437997e-02, -2.85094827e-02,
       -4.45863269e-02, -1.23615831e-03, 9.71172657e-03, 9.11579374e-03,
       -2.49457662e-03, 1.80098228e-02, 2.40779836e-02, -8.33835080e-03,
       1.01984078e-02, -1.22767678e-02, -1.65587440e-02, -2.41888743e-02,
       -2.54597589e-02, 2.85636773e-03, 1.91605892e-02, -8.08748417e-03,
       -5.43121509e-02, -2.90328395e-02, -2.68640909e-02,
       -3.51903066e-02, 1.65148731e-02, -5.47032570e-03, 3.58426794e-02,
       2.47171000e-02, 1.41416388e-02, -2.58366503e-02, 3.99862649e-03,
       -2.87076971e-03, -2.17114948e-02, 1.72130205e-02, -1.68580525e-02,
       -2.59170886e-02, -1.37216887e-02, 1.13389408e-02, -1.95571948e-02,
       3.43011767e-02, 4.31124540e-03, -1.75464116e-02, -2.87776883e-03,
       1.21513400e-02, 4.71646450e-02, 1.41847776e-02, 4.86867018e-02,
       -3.71201783e-02, -2.53834017e-02, -2.45239995e-02,
       -3.54402214e-02, -1.42646022e-03, 1.42184859e-02, 9.62072797e-03,
       4.24762676e-03, 1.66285895e-02, -2.76747458e-02, -3.09687126e-02,
       -3.81734148e-02, 4.69542108e-04, 3.98023985e-02, -8.14261008e-03,
       7.10221194e-03, 2.16935482e-02, 4.01482284e-02, 3.89020005e-03,
       3.12302839e-02, 1.99492406e-02, -1.13624753e-02, -7.77061610e-03,
       -4.38714996e-02, -2.21087374e-02, -3.05712246e-03,
       -3.54856229e-03, -4.60916618e-03, 7.68128410e-03, 7.93571025e-03,
       1.90518505e-03, 1.51404394e-02, 1.32450126e-02, 1.18434113e-02,
       5.20183146e-03, 3.08682267e-02, -1.32470820e-02, 6.18055603e-03,
       1.84038822e-02, -1.86163057e-02, -1.27822105e-02, -5.03990464e-02,
       -5.17537445e-02, 2.28735013e-03, 1.46064553e-02, -3.67088020e-02,
       -1.71376690e-02, -4.09433804e-03, 1.78770870e-02, 3.22488248e-02,
       -1.28753465e-02, 1.73739847e-02, 1.55757219e-02, 2.60141958e-02,
       6.21447992e-03, -5.01449034e-03, 1.66614831e-03, -3.06871929e-03,
       2.14777645e-02, 7.56635983e-03, -3.75533197e-03, 7.19301729e-03,
       -7.07325758e-03, 8.20306502e-03, -1.83387436e-02, -4.57574148e-03,
       -6.68114284e-03, 2.07752790e-02, -3.52572575e-02, 4.14484926e-03,
       1.76806170e-02, 1.82486363e-02, -2.07263902e-02, 2.29711458e-03,
       -2.29742080e-02, -3.87129784e-02, 2.31812559e-02, -1.48577420e-02,
       8.28742143e-03, 1.12452395e-02, -1.45623907e-02, -3.48563716e-02,
       -2.87798382e-02, -2.20136847e-02, -9.35294945e-03, 2.77171880e-02,
       2.20342930e-02, 1.40429381e-02, -9.23295040e-03, 1.07271140e-02,
       3.36022079e-02, -4.01362637e-03, -1.05843064e-03, -9.95672774e-03,
       5.96501911e-03, 3.97278368e-03, -1.01744505e-02, 1.63212121e-02,
       -7.89718144e-03, -1.09897377e-02, -1.35424081e-02,
       -2.76637394e-02, -2.48810388e-02, 1.56767853e-02, 1.05893705e-02,
       1.76971518e-02, -3.57357343e-03, 2.66904701e-02, 9.49081872e-03,
       -3.73070240e-02, -2.20589507e-02, 2.05087364e-02, 1.83173902e-02,
       6.68531330e-03, -1.04680955e-02, 6.81743026e-03, 5.95982047e-03,
       -7.47224176e-03, -1.87003985e-02, -6.87026419e-03, 1.96425002e-02,
       2.06590872e-02, -6.61009643e-03, 6.17588731e-03, -1.26067158e-02,
       2.46214848e-02, 2.54781661e-03, -1.56187639e-02, 7.67813162e-06,
       1.02419499e-03, 1.59787294e-02, 6.37275539e-03, -1.33274868e-02,
       -2.17047501e-02, 1.29946815e-02, 3.38805746e-03, -1.33539108e-03,
       -3.44475475e-03, 3.09561789e-02, -2.98508734e-04, -2.15492472e-02,
       -1.17683634e-02, -2.99068708e-02, 4.83784080e-03, -1.38228424e-02,
       -1.71857513e-02, 1.11499242e-03, -8.01529828e-03, 6.17153104e-03,
       -2.39511598e-02, 8.16707034e-03, 1.75193064e-02, -2.38715019e-02,
       -3.77830788e-02, -1.91299692e-02, 1.99384987e-02, -1.18258437e-02,
       2.21129842e-02, 5.01891365e-03, 1.72657873e-02, 2.04426255e-02,
       2.30291076e-02, 5.44695836e-03, 6.49085268e-03, -1.85011839e-03,
       -2.70795058e-02, 2.16013975e-02, -1.67321023e-02, -6.59105353e-05,
       -6.72672270e-03, 1.78643558e-02, -1.00684855e-02, 2.49595828e-02,
       -2.68422812e-02, 9.38610639e-03, 1.17403334e-02, -1.56082585e-02,
       1.23091508e-02, 4.44421209e-02, 1.78665482e-02, -1.49428789e-02,
       -1.60135422e-02, 1.79908853e-02, -1.49438512e-02, 1.53083578e-02,
       -3.45081240e-02, -2.87499037e-02, -1.33838560e-02, 1.82367656e-02,
       -8.61944444e-03, -2.50064489e-02, -2.11189091e-02,
       -3.72080482e-03, 1.50407190e-02, 2.49641552e-03, 3.33883315e-02,
       1.70081370e-02, 3.25057805e-02, -4.69345017e-04, 1.35426037e-02,
       -1.79135371e-02, -1.81839243e-02, -7.34291133e-03, 4.16914299e-05,
       6.76636631e-03, -1.80863142e-02, 1.45924892e-02, 1.73842777e-02,
       -1.72286220e-02, -2.58694869e-02, 6.22458570e-03, 3.95925269e-02,
       -4.89482423e-03, -1.10699772e-03, 7.71436282e-03, 3.84029113e-02,
       3.46265896e-03, -1.99082475e-02, -4.28035967e-02, -2.55330950e-02,
       1.30888261e-02, -3.27632762e-02, -2.40090843e-02, -1.98956206e-02,
       -1.82019174e-02, -3.73787433e-02, -2.16902047e-02,
       -2.56641526e-02, -7.40160421e-03, 2.26096660e-02, 2.87854429e-02,
       5.61690936e-03, 3.90401832e-03, 4.50078510e-02, 2.64721625e-02,
       7.00454621e-05, 1.05273137e-02, -9.28121060e-03, 1.18960226e-02,
       3.97920758e-02, 1.69506427e-02, -1.09117962e-02, -2.73830909e-02,
       1.37039984e-03, -5.45078935e-03, 4.61211242e-03, -3.02251521e-03,
       -7.38643110e-03, -2.95032281e-02, -1.32374223e-02, 4.98052919e-03,
       4.63972613e-02, 2.08155178e-02, 1.46519486e-02, 7.73315434e-04,
       -1.77044794e-02, 3.64233041e-03, 1.14246728e-02, 5.31446328e-03,
       4.00344208e-02, 3.04895490e-02, 5.58476988e-03, -7.48681556e-03,
       -8.86971597e-03, 1.27150277e-02, 1.65088009e-02, 8.43718555e-03,
       -1.99106944e-04, -1.98600590e-02, -1.47433002e-02, 1.37829818e-02,
       -7.38848746e-03, -2.41060667e-02, 2.09139064e-02, 3.11193202e-04,
       -8.07210058e-03, -1.17159626e-02, -2.95777991e-03,
       -9.04105511e-03, 2.62770578e-02, -2.56374907e-02, -8.44529737e-03,
       -1.08064730e-02, 1.20504843e-02, -2.18325779e-02, -1.78545509e-02,
       2.34553367e-02, 4.28000428e-02, 2.04939581e-02, 7.48930499e-03,
       -1.29801705e-02, -8.95158201e-03, -2.90268883e-02,
       -3.38582397e-02, 1.18871382e-03, 7.45661417e-03, 1.65197831e-02,
       -1.31512596e-03, -5.73472632e-03, 1.02733094e-02, 8.63712747e-03,
       -1.71768684e-02, -4.88426012e-05, 3.73309962e-02, -2.87526138e-02,
       2.16933177e-03, 8.77844449e-03, -3.71975601e-02, 4.64279531e-03,
       3.68374102e-02, -4.53138873e-02, -1.34777483e-02, 1.24640558e-02,
       -5.45041002e-02, 1.41741605e-02, 1.57854974e-03, -4.32429686e-02,
       6.05850574e-03, 2.62215789e-02, -1.79012697e-02, -1.02068074e-02,
       4.08189707e-02, -2.93974709e-02, 1.06120007e-02, -2.28082146e-02,
       -2.27605831e-02, 2.35010330e-02, 5.39906137e-02, -4.62898538e-02,
       -3.85043807e-02, -6.43767882e-03, -4.89000753e-02, 4.08369629e-03,
       -2.40676869e-02, -6.05132394e-02, 3.22918147e-02, -1.53043294e+00 ]
